digraph Tree {
node [shape=box, style="filled, rounded", color="black", fontname=helvetica] ;
edge [fontname=helvetica] ;
0 [label=<ProcessSize &le; 18.0<br/>entropy = 0.863<br/>samples = 3397<br/>value = [490, 2743, 164]>, fillcolor="#66eb9d"] ;
1 [label=<ProcessSize &le; 13.0<br/>entropy = 1.283<br/>samples = 751<br/>value = [488, 120, 143]>, fillcolor="#f0b88f"] ;
0 -> 1 [labeldistance=2.5, labelangle=45, headlabel="True"] ;
2 [label=<ProcessSize &le; 3.5<br/>entropy = 0.352<br/>samples = 262<br/>value = [246, 15, 1]>, fillcolor="#e78946"] ;
1 -> 2 ;
3 [label=<Transsistors &le; 2250.0<br/>entropy = 0.544<br/>samples = 8<br/>value = [1, 7, 0]>, fillcolor="#55e993"] ;
2 -> 3 ;
4 [label=<entropy = 0.0<br/>samples = 7<br/>value = [0, 7, 0]>, fillcolor="#39e581"] ;
3 -> 4 ;
5 [label=<entropy = 0.0<br/>samples = 1<br/>value = [1, 0, 0]>, fillcolor="#e58139"] ;
3 -> 5 ;
6 [label=<No &le; 2492.5<br/>entropy = 0.239<br/>samples = 254<br/>value = [245, 8, 1]>, fillcolor="#e68640"] ;
2 -> 6 ;
7 [label=<entropy = 0.0<br/>samples = 136<br/>value = [136, 0, 0]>, fillcolor="#e58139"] ;
6 -> 7 ;
8 [label=<No &le; 4073.0<br/>entropy = 0.427<br/>samples = 118<br/>value = [109, 8, 1]>, fillcolor="#e78b49"] ;
6 -> 8 ;
9 [label=<DieSize &le; 784.5<br/>entropy = 0.559<br/>samples = 81<br/>value = [72, 8, 1]>, fillcolor="#e89151"] ;
8 -> 9 ;
10 [label=<Transsistors &le; 5550.0<br/>entropy = 0.49<br/>samples = 75<br/>value = [67, 8, 0]>, fillcolor="#e89051"] ;
9 -> 10 ;
11 [label=<DieSize &le; 218.0<br/>entropy = 0.792<br/>samples = 21<br/>value = [16, 5, 0]>, fillcolor="#eda877"] ;
10 -> 11 ;
12 [label=<No &le; 2555.0<br/>entropy = 0.629<br/>samples = 19<br/>value = [16, 3, 0]>, fillcolor="#ea995e"] ;
11 -> 12 ;
13 [label=<entropy = 0.0<br/>samples = 1<br/>value = [0, 1, 0]>, fillcolor="#39e581"] ;
12 -> 13 ;
14 [label=<No &le; 3752.0<br/>entropy = 0.503<br/>samples = 18<br/>value = [16, 2, 0]>, fillcolor="#e89152"] ;
12 -> 14 ;
15 [label=<entropy = 0.0<br/>samples = 13<br/>value = [13, 0, 0]>, fillcolor="#e58139"] ;
14 -> 15 ;
16 [label=<TDP &le; 32.5<br/>entropy = 0.971<br/>samples = 5<br/>value = [3, 2, 0]>, fillcolor="#f6d5bd"] ;
14 -> 16 ;
17 [label=<entropy = 0.0<br/>samples = 2<br/>value = [2, 0, 0]>, fillcolor="#e58139"] ;
16 -> 17 ;
18 [label=<Freq &le; 1275.0<br/>entropy = 0.918<br/>samples = 3<br/>value = [1, 2, 0]>, fillcolor="#9cf2c0"] ;
16 -> 18 ;
19 [label=<entropy = 0.0<br/>samples = 2<br/>value = [0, 2, 0]>, fillcolor="#39e581"] ;
18 -> 19 ;
20 [label=<entropy = 0.0<br/>samples = 1<br/>value = [1, 0, 0]>, fillcolor="#e58139"] ;
18 -> 20 ;
21 [label=<entropy = 0.0<br/>samples = 2<br/>value = [0, 2, 0]>, fillcolor="#39e581"] ;
11 -> 21 ;
22 [label=<TDP &le; 255.0<br/>entropy = 0.31<br/>samples = 54<br/>value = [51, 3, 0]>, fillcolor="#e78845"] ;
10 -> 22 ;
23 [label=<TDP &le; 30.0<br/>entropy = 0.154<br/>samples = 45<br/>value = [44, 1, 0]>, fillcolor="#e6843d"] ;
22 -> 23 ;
24 [label=<No &le; 3160.5<br/>entropy = 0.811<br/>samples = 4<br/>value = [3, 1, 0]>, fillcolor="#eeab7b"] ;
23 -> 24 ;
25 [label=<entropy = 0.0<br/>samples = 2<br/>value = [2, 0, 0]>, fillcolor="#e58139"] ;
24 -> 25 ;
26 [label=<TDP &le; 7.5<br/>entropy = 1.0<br/>samples = 2<br/>value = [1, 1, 0]>, fillcolor="#ffffff"] ;
24 -> 26 ;
27 [label=<entropy = 0.0<br/>samples = 1<br/>value = [1, 0, 0]>, fillcolor="#e58139"] ;
26 -> 27 ;
28 [label=<entropy = 0.0<br/>samples = 1<br/>value = [0, 1, 0]>, fillcolor="#39e581"] ;
26 -> 28 ;
29 [label=<entropy = 0.0<br/>samples = 41<br/>value = [41, 0, 0]>, fillcolor="#e58139"] ;
23 -> 29 ;
30 [label=<TDP &le; 270.0<br/>entropy = 0.764<br/>samples = 9<br/>value = [7, 2, 0]>, fillcolor="#eca572"] ;
22 -> 30 ;
31 [label=<entropy = 0.0<br/>samples = 1<br/>value = [0, 1, 0]>, fillcolor="#39e581"] ;
30 -> 31 ;
32 [label=<TDP &le; 412.5<br/>entropy = 0.544<br/>samples = 8<br/>value = [7, 1, 0]>, fillcolor="#e99355"] ;
30 -> 32 ;
33 [label=<entropy = 0.0<br/>samples = 6<br/>value = [6, 0, 0]>, fillcolor="#e58139"] ;
32 -> 33 ;
34 [label=<No &le; 3087.5<br/>entropy = 1.0<br/>samples = 2<br/>value = [1, 1, 0]>, fillcolor="#ffffff"] ;
32 -> 34 ;
35 [label=<entropy = 0.0<br/>samples = 1<br/>value = [1, 0, 0]>, fillcolor="#e58139"] ;
34 -> 35 ;
36 [label=<entropy = 0.0<br/>samples = 1<br/>value = [0, 1, 0]>, fillcolor="#39e581"] ;
34 -> 36 ;
37 [label=<Freq &le; 1304.5<br/>entropy = 0.65<br/>samples = 6<br/>value = [5, 0, 1]>, fillcolor="#ea9a61"] ;
9 -> 37 ;
38 [label=<entropy = 0.0<br/>samples = 5<br/>value = [5, 0, 0]>, fillcolor="#e58139"] ;
37 -> 38 ;
39 [label=<entropy = 0.0<br/>samples = 1<br/>value = [0, 0, 1]>, fillcolor="#8139e5"] ;
37 -> 39 ;
40 [label=<entropy = 0.0<br/>samples = 37<br/>value = [37, 0, 0]>, fillcolor="#e58139"] ;
8 -> 40 ;
41 [label=<Freq &le; 919.5<br/>entropy = 1.497<br/>samples = 489<br/>value = [242, 105, 142]>, fillcolor="#f8dbc6"] ;
1 -> 41 ;
42 [label=<TDP &le; 8.0<br/>entropy = 1.356<br/>samples = 93<br/>value = [46, 38, 9]>, fillcolor="#fbede2"] ;
41 -> 42 ;
43 [label=<No &le; 3291.0<br/>entropy = 0.414<br/>samples = 12<br/>value = [0, 11, 1]>, fillcolor="#4be78c"] ;
42 -> 43 ;
44 [label=<DieSize &le; 25.0<br/>entropy = 0.722<br/>samples = 5<br/>value = [0, 4, 1]>, fillcolor="#6aeca0"] ;
43 -> 44 ;
45 [label=<entropy = 0.0<br/>samples = 1<br/>value = [0, 0, 1]>, fillcolor="#8139e5"] ;
44 -> 45 ;
46 [label=<entropy = 0.0<br/>samples = 4<br/>value = [0, 4, 0]>, fillcolor="#39e581"] ;
44 -> 46 ;
47 [label=<entropy = 0.0<br/>samples = 7<br/>value = [0, 7, 0]>, fillcolor="#39e581"] ;
43 -> 47 ;
48 [label=<Freq &le; 542.0<br/>entropy = 1.322<br/>samples = 81<br/>value = [46, 27, 8]>, fillcolor="#f6d3b9"] ;
42 -> 48 ;
49 [label=<Transsistors &le; 1000.0<br/>entropy = 1.212<br/>samples = 67<br/>value = [44, 17, 6]>, fillcolor="#f1bb94"] ;
48 -> 49 ;
50 [label=<DieSize &le; 61.5<br/>entropy = 1.359<br/>samples = 41<br/>value = [20, 17, 4]>, fillcolor="#fcefe6"] ;
49 -> 50 ;
51 [label=<No &le; 3777.0<br/>entropy = 1.357<br/>samples = 37<br/>value = [20, 13, 4]>, fillcolor="#f7dac5"] ;
50 -> 51 ;
52 [label=<No &le; 3524.5<br/>entropy = 1.473<br/>samples = 22<br/>value = [11, 7, 4]>, fillcolor="#f8ddca"] ;
51 -> 52 ;
53 [label=<No &le; 3276.0<br/>entropy = 1.337<br/>samples = 20<br/>value = [11, 7, 2]>, fillcolor="#f7d8c2"] ;
52 -> 53 ;
54 [label=<No &le; 3047.5<br/>entropy = 1.429<br/>samples = 15<br/>value = [6, 7, 2]>, fillcolor="#e9fcf1"] ;
53 -> 54 ;
55 [label=<No &le; 2345.5<br/>entropy = 1.459<br/>samples = 12<br/>value = [6, 4, 2]>, fillcolor="#f8e0ce"] ;
54 -> 55 ;
56 [label=<No &le; 2232.0<br/>entropy = 0.971<br/>samples = 5<br/>value = [2, 3, 0]>, fillcolor="#bdf6d5"] ;
55 -> 56 ;
57 [label=<Freq &le; 325.0<br/>entropy = 0.918<br/>samples = 3<br/>value = [2, 1, 0]>, fillcolor="#f2c09c"] ;
56 -> 57 ;
58 [label=<No &le; 2216.5<br/>entropy = 1.0<br/>samples = 2<br/>value = [1, 1, 0]>, fillcolor="#ffffff"] ;
57 -> 58 ;
59 [label=<entropy = 0.0<br/>samples = 1<br/>value = [0, 1, 0]>, fillcolor="#39e581"] ;
58 -> 59 ;
60 [label=<entropy = 0.0<br/>samples = 1<br/>value = [1, 0, 0]>, fillcolor="#e58139"] ;
58 -> 60 ;
61 [label=<entropy = 0.0<br/>samples = 1<br/>value = [1, 0, 0]>, fillcolor="#e58139"] ;
57 -> 61 ;
62 [label=<entropy = 0.0<br/>samples = 2<br/>value = [0, 2, 0]>, fillcolor="#39e581"] ;
56 -> 62 ;
63 [label=<Freq &le; 325.0<br/>entropy = 1.379<br/>samples = 7<br/>value = [4, 1, 2]>, fillcolor="#f5cdb0"] ;
55 -> 63 ;
64 [label=<No &le; 2860.5<br/>entropy = 0.971<br/>samples = 5<br/>value = [3, 0, 2]>, fillcolor="#f6d5bd"] ;
63 -> 64 ;
65 [label=<No &le; 2573.5<br/>entropy = 0.918<br/>samples = 3<br/>value = [1, 0, 2]>, fillcolor="#c09cf2"] ;
64 -> 65 ;
66 [label=<entropy = 0.0<br/>samples = 1<br/>value = [0, 0, 1]>, fillcolor="#8139e5"] ;
65 -> 66 ;
67 [label=<No &le; 2757.0<br/>entropy = 1.0<br/>samples = 2<br/>value = [1, 0, 1]>, fillcolor="#ffffff"] ;
65 -> 67 ;
68 [label=<entropy = 0.0<br/>samples = 1<br/>value = [1, 0, 0]>, fillcolor="#e58139"] ;
67 -> 68 ;
69 [label=<entropy = 0.0<br/>samples = 1<br/>value = [0, 0, 1]>, fillcolor="#8139e5"] ;
67 -> 69 ;
70 [label=<entropy = 0.0<br/>samples = 2<br/>value = [2, 0, 0]>, fillcolor="#e58139"] ;
64 -> 70 ;
71 [label=<No &le; 2595.0<br/>entropy = 1.0<br/>samples = 2<br/>value = [1, 1, 0]>, fillcolor="#ffffff"] ;
63 -> 71 ;
72 [label=<entropy = 0.0<br/>samples = 1<br/>value = [1, 0, 0]>, fillcolor="#e58139"] ;
71 -> 72 ;
73 [label=<entropy = 0.0<br/>samples = 1<br/>value = [0, 1, 0]>, fillcolor="#39e581"] ;
71 -> 73 ;
74 [label=<entropy = 0.0<br/>samples = 3<br/>value = [0, 3, 0]>, fillcolor="#39e581"] ;
54 -> 74 ;
75 [label=<entropy = 0.0<br/>samples = 5<br/>value = [5, 0, 0]>, fillcolor="#e58139"] ;
53 -> 75 ;
76 [label=<entropy = 0.0<br/>samples = 2<br/>value = [0, 0, 2]>, fillcolor="#8139e5"] ;
52 -> 76 ;
77 [label=<No &le; 3949.0<br/>entropy = 0.971<br/>samples = 15<br/>value = [9, 6, 0]>, fillcolor="#f6d5bd"] ;
51 -> 77 ;
78 [label=<entropy = 0.0<br/>samples = 2<br/>value = [2, 0, 0]>, fillcolor="#e58139"] ;
77 -> 78 ;
79 [label=<No &le; 4594.5<br/>entropy = 0.996<br/>samples = 13<br/>value = [7, 6, 0]>, fillcolor="#fbede3"] ;
77 -> 79 ;
80 [label=<No &le; 4029.0<br/>entropy = 0.954<br/>samples = 8<br/>value = [3, 5, 0]>, fillcolor="#b0f5cd"] ;
79 -> 80 ;
81 [label=<entropy = 0.0<br/>samples = 1<br/>value = [0, 1, 0]>, fillcolor="#39e581"] ;
80 -> 81 ;
82 [label=<No &le; 4158.5<br/>entropy = 0.985<br/>samples = 7<br/>value = [3, 4, 0]>, fillcolor="#cef8e0"] ;
80 -> 82 ;
83 [label=<entropy = 0.0<br/>samples = 1<br/>value = [1, 0, 0]>, fillcolor="#e58139"] ;
82 -> 83 ;
84 [label=<Freq &le; 325.0<br/>entropy = 0.918<br/>samples = 6<br/>value = [2, 4, 0]>, fillcolor="#9cf2c0"] ;
82 -> 84 ;
85 [label=<entropy = 0.0<br/>samples = 1<br/>value = [0, 1, 0]>, fillcolor="#39e581"] ;
84 -> 85 ;
86 [label=<No &le; 4278.5<br/>entropy = 0.971<br/>samples = 5<br/>value = [2, 3, 0]>, fillcolor="#bdf6d5"] ;
84 -> 86 ;
87 [label=<entropy = 0.0<br/>samples = 1<br/>value = [0, 1, 0]>, fillcolor="#39e581"] ;
86 -> 87 ;
88 [label=<No &le; 4306.5<br/>entropy = 1.0<br/>samples = 4<br/>value = [2, 2, 0]>, fillcolor="#ffffff"] ;
86 -> 88 ;
89 [label=<entropy = 0.0<br/>samples = 1<br/>value = [1, 0, 0]>, fillcolor="#e58139"] ;
88 -> 89 ;
90 [label=<No &le; 4453.0<br/>entropy = 0.918<br/>samples = 3<br/>value = [1, 2, 0]>, fillcolor="#9cf2c0"] ;
88 -> 90 ;
91 [label=<entropy = 0.0<br/>samples = 1<br/>value = [0, 1, 0]>, fillcolor="#39e581"] ;
90 -> 91 ;
92 [label=<No &le; 4588.0<br/>entropy = 1.0<br/>samples = 2<br/>value = [1, 1, 0]>, fillcolor="#ffffff"] ;
90 -> 92 ;
93 [label=<entropy = 0.0<br/>samples = 1<br/>value = [1, 0, 0]>, fillcolor="#e58139"] ;
92 -> 93 ;
94 [label=<entropy = 0.0<br/>samples = 1<br/>value = [0, 1, 0]>, fillcolor="#39e581"] ;
92 -> 94 ;
95 [label=<Freq &le; 325.0<br/>entropy = 0.722<br/>samples = 5<br/>value = [4, 1, 0]>, fillcolor="#eca06a"] ;
79 -> 95 ;
96 [label=<No &le; 4715.0<br/>entropy = 1.0<br/>samples = 2<br/>value = [1, 1, 0]>, fillcolor="#ffffff"] ;
95 -> 96 ;
97 [label=<entropy = 0.0<br/>samples = 1<br/>value = [0, 1, 0]>, fillcolor="#39e581"] ;
96 -> 97 ;
98 [label=<entropy = 0.0<br/>samples = 1<br/>value = [1, 0, 0]>, fillcolor="#e58139"] ;
96 -> 98 ;
99 [label=<entropy = 0.0<br/>samples = 3<br/>value = [3, 0, 0]>, fillcolor="#e58139"] ;
95 -> 99 ;
100 [label=<entropy = 0.0<br/>samples = 4<br/>value = [0, 4, 0]>, fillcolor="#39e581"] ;
50 -> 100 ;
101 [label=<No &le; 3916.5<br/>entropy = 0.391<br/>samples = 26<br/>value = [24, 0, 2]>, fillcolor="#e78c49"] ;
49 -> 101 ;
102 [label=<entropy = 0.0<br/>samples = 15<br/>value = [15, 0, 0]>, fillcolor="#e58139"] ;
101 -> 102 ;
103 [label=<No &le; 3959.0<br/>entropy = 0.684<br/>samples = 11<br/>value = [9, 0, 2]>, fillcolor="#eb9d65"] ;
101 -> 103 ;
104 [label=<entropy = 0.0<br/>samples = 1<br/>value = [0, 0, 1]>, fillcolor="#8139e5"] ;
103 -> 104 ;
105 [label=<TDP &le; 12.5<br/>entropy = 0.469<br/>samples = 10<br/>value = [9, 0, 1]>, fillcolor="#e88f4f"] ;
103 -> 105 ;
106 [label=<No &le; 4362.0<br/>entropy = 1.0<br/>samples = 2<br/>value = [1, 0, 1]>, fillcolor="#ffffff"] ;
105 -> 106 ;
107 [label=<entropy = 0.0<br/>samples = 1<br/>value = [1, 0, 0]>, fillcolor="#e58139"] ;
106 -> 107 ;
108 [label=<entropy = 0.0<br/>samples = 1<br/>value = [0, 0, 1]>, fillcolor="#8139e5"] ;
106 -> 108 ;
109 [label=<entropy = 0.0<br/>samples = 8<br/>value = [8, 0, 0]>, fillcolor="#e58139"] ;
105 -> 109 ;
110 [label=<Transsistors &le; 9850.0<br/>entropy = 1.149<br/>samples = 14<br/>value = [2, 10, 2]>, fillcolor="#7beeab"] ;
48 -> 110 ;
111 [label=<No &le; 2552.5<br/>entropy = 0.817<br/>samples = 12<br/>value = [1, 10, 1]>, fillcolor="#5dea98"] ;
110 -> 111 ;
112 [label=<entropy = 0.0<br/>samples = 1<br/>value = [1, 0, 0]>, fillcolor="#e58139"] ;
111 -> 112 ;
113 [label=<No &le; 3580.0<br/>entropy = 0.439<br/>samples = 11<br/>value = [0, 10, 1]>, fillcolor="#4de88e"] ;
111 -> 113 ;
114 [label=<entropy = 0.0<br/>samples = 5<br/>value = [0, 5, 0]>, fillcolor="#39e581"] ;
113 -> 114 ;
115 [label=<No &le; 3832.5<br/>entropy = 0.65<br/>samples = 6<br/>value = [0, 5, 1]>, fillcolor="#61ea9a"] ;
113 -> 115 ;
116 [label=<entropy = 0.0<br/>samples = 1<br/>value = [0, 0, 1]>, fillcolor="#8139e5"] ;
115 -> 116 ;
117 [label=<entropy = 0.0<br/>samples = 5<br/>value = [0, 5, 0]>, fillcolor="#39e581"] ;
115 -> 117 ;
118 [label=<No &le; 3651.0<br/>entropy = 1.0<br/>samples = 2<br/>value = [1, 0, 1]>, fillcolor="#ffffff"] ;
110 -> 118 ;
119 [label=<entropy = 0.0<br/>samples = 1<br/>value = [1, 0, 0]>, fillcolor="#e58139"] ;
118 -> 119 ;
120 [label=<entropy = 0.0<br/>samples = 1<br/>value = [0, 0, 1]>, fillcolor="#8139e5"] ;
118 -> 120 ;
121 [label=<Transsistors &le; 700.0<br/>entropy = 1.465<br/>samples = 396<br/>value = [196, 67, 133]>, fillcolor="#f9e1d0"] ;
41 -> 121 ;
122 [label=<TDP &le; 31.5<br/>entropy = 1.231<br/>samples = 195<br/>value = [130, 23, 42]>, fillcolor="#f0b78d"] ;
121 -> 122 ;
123 [label=<DieSize &le; 86.5<br/>entropy = 1.473<br/>samples = 36<br/>value = [17, 13, 6]>, fillcolor="#fae9dd"] ;
122 -> 123 ;
124 [label=<No &le; 1223.0<br/>entropy = 1.201<br/>samples = 21<br/>value = [8, 12, 1]>, fillcolor="#c2f7d8"] ;
123 -> 124 ;
125 [label=<No &le; 828.0<br/>entropy = 0.985<br/>samples = 14<br/>value = [8, 6, 0]>, fillcolor="#f8e0ce"] ;
124 -> 125 ;
126 [label=<No &le; 150.5<br/>entropy = 0.971<br/>samples = 10<br/>value = [4, 6, 0]>, fillcolor="#bdf6d5"] ;
125 -> 126 ;
127 [label=<TDP &le; 20.0<br/>entropy = 0.811<br/>samples = 4<br/>value = [3, 1, 0]>, fillcolor="#eeab7b"] ;
126 -> 127 ;
128 [label=<entropy = 0.0<br/>samples = 1<br/>value = [0, 1, 0]>, fillcolor="#39e581"] ;
127 -> 128 ;
129 [label=<entropy = 0.0<br/>samples = 3<br/>value = [3, 0, 0]>, fillcolor="#e58139"] ;
127 -> 129 ;
130 [label=<TDP &le; 12.0<br/>entropy = 0.65<br/>samples = 6<br/>value = [1, 5, 0]>, fillcolor="#61ea9a"] ;
126 -> 130 ;
131 [label=<TDP &le; 7.0<br/>entropy = 1.0<br/>samples = 2<br/>value = [1, 1, 0]>, fillcolor="#ffffff"] ;
130 -> 131 ;
132 [label=<entropy = 0.0<br/>samples = 1<br/>value = [0, 1, 0]>, fillcolor="#39e581"] ;
131 -> 132 ;
133 [label=<entropy = 0.0<br/>samples = 1<br/>value = [1, 0, 0]>, fillcolor="#e58139"] ;
131 -> 133 ;
134 [label=<entropy = 0.0<br/>samples = 4<br/>value = [0, 4, 0]>, fillcolor="#39e581"] ;
130 -> 134 ;
135 [label=<entropy = 0.0<br/>samples = 4<br/>value = [4, 0, 0]>, fillcolor="#e58139"] ;
125 -> 135 ;
136 [label=<No &le; 1443.5<br/>entropy = 0.592<br/>samples = 7<br/>value = [0, 6, 1]>, fillcolor="#5ae996"] ;
124 -> 136 ;
137 [label=<entropy = 0.0<br/>samples = 1<br/>value = [0, 0, 1]>, fillcolor="#8139e5"] ;
136 -> 137 ;
138 [label=<entropy = 0.0<br/>samples = 6<br/>value = [0, 6, 0]>, fillcolor="#39e581"] ;
136 -> 138 ;
139 [label=<TDP &le; 20.0<br/>entropy = 1.231<br/>samples = 15<br/>value = [9, 1, 5]>, fillcolor="#f5cdb0"] ;
123 -> 139 ;
140 [label=<Freq &le; 1950.0<br/>entropy = 1.0<br/>samples = 10<br/>value = [5, 0, 5]>, fillcolor="#ffffff"] ;
139 -> 140 ;
141 [label=<entropy = 0.0<br/>samples = 4<br/>value = [0, 0, 4]>, fillcolor="#8139e5"] ;
140 -> 141 ;
142 [label=<No &le; 1164.5<br/>entropy = 0.65<br/>samples = 6<br/>value = [5, 0, 1]>, fillcolor="#ea9a61"] ;
140 -> 142 ;
143 [label=<entropy = 0.0<br/>samples = 4<br/>value = [4, 0, 0]>, fillcolor="#e58139"] ;
142 -> 143 ;
144 [label=<No &le; 1647.5<br/>entropy = 1.0<br/>samples = 2<br/>value = [1, 0, 1]>, fillcolor="#ffffff"] ;
142 -> 144 ;
145 [label=<entropy = 0.0<br/>samples = 1<br/>value = [0, 0, 1]>, fillcolor="#8139e5"] ;
144 -> 145 ;
146 [label=<entropy = 0.0<br/>samples = 1<br/>value = [1, 0, 0]>, fillcolor="#e58139"] ;
144 -> 146 ;
147 [label=<TDP &le; 26.5<br/>entropy = 0.722<br/>samples = 5<br/>value = [4, 1, 0]>, fillcolor="#eca06a"] ;
139 -> 147 ;
148 [label=<entropy = 0.0<br/>samples = 1<br/>value = [0, 1, 0]>, fillcolor="#39e581"] ;
147 -> 148 ;
149 [label=<entropy = 0.0<br/>samples = 4<br/>value = [4, 0, 0]>, fillcolor="#e58139"] ;
147 -> 149 ;
150 [label=<Freq &le; 3350.0<br/>entropy = 1.086<br/>samples = 159<br/>value = [113, 10, 36]>, fillcolor="#efb083"] ;
122 -> 150 ;
151 [label=<No &le; 719.0<br/>entropy = 0.971<br/>samples = 94<br/>value = [73, 7, 14]>, fillcolor="#eca26d"] ;
150 -> 151 ;
152 [label=<DieSize &le; 165.5<br/>entropy = 0.667<br/>samples = 23<br/>value = [19, 4, 0]>, fillcolor="#ea9c63"] ;
151 -> 152 ;
153 [label=<No &le; 446.5<br/>entropy = 0.575<br/>samples = 22<br/>value = [19, 3, 0]>, fillcolor="#e99558"] ;
152 -> 153 ;
154 [label=<No &le; 375.0<br/>entropy = 0.75<br/>samples = 14<br/>value = [11, 3, 0]>, fillcolor="#eca36f"] ;
153 -> 154 ;
155 [label=<No &le; 71.0<br/>entropy = 0.414<br/>samples = 12<br/>value = [11, 1, 0]>, fillcolor="#e78c4b"] ;
154 -> 155 ;
156 [label=<DieSize &le; 74.5<br/>entropy = 1.0<br/>samples = 2<br/>value = [1, 1, 0]>, fillcolor="#ffffff"] ;
155 -> 156 ;
157 [label=<entropy = 0.0<br/>samples = 1<br/>value = [1, 0, 0]>, fillcolor="#e58139"] ;
156 -> 157 ;
158 [label=<entropy = 0.0<br/>samples = 1<br/>value = [0, 1, 0]>, fillcolor="#39e581"] ;
156 -> 158 ;
159 [label=<entropy = 0.0<br/>samples = 10<br/>value = [10, 0, 0]>, fillcolor="#e58139"] ;
155 -> 159 ;
160 [label=<entropy = 0.0<br/>samples = 2<br/>value = [0, 2, 0]>, fillcolor="#39e581"] ;
154 -> 160 ;
161 [label=<entropy = 0.0<br/>samples = 8<br/>value = [8, 0, 0]>, fillcolor="#e58139"] ;
153 -> 161 ;
162 [label=<entropy = 0.0<br/>samples = 1<br/>value = [0, 1, 0]>, fillcolor="#39e581"] ;
152 -> 162 ;
163 [label=<Freq &le; 3150.0<br/>entropy = 0.955<br/>samples = 71<br/>value = [54, 3, 14]>, fillcolor="#eda774"] ;
151 -> 163 ;
164 [label=<No &le; 1742.5<br/>entropy = 0.817<br/>samples = 67<br/>value = [53, 1, 13]>, fillcolor="#eca26c"] ;
163 -> 164 ;
165 [label=<Freq &le; 3050.0<br/>entropy = 0.991<br/>samples = 44<br/>value = [31, 1, 12]>, fillcolor="#f0b489"] ;
164 -> 165 ;
166 [label=<DieSize &le; 63.0<br/>entropy = 1.085<br/>samples = 36<br/>value = [23, 1, 12]>, fillcolor="#f3c5a4"] ;
165 -> 166 ;
167 [label=<TDP &le; 40.0<br/>entropy = 1.157<br/>samples = 30<br/>value = [17, 1, 12]>, fillcolor="#f8dcc8"] ;
166 -> 167 ;
168 [label=<Freq &le; 2350.0<br/>entropy = 1.352<br/>samples = 9<br/>value = [3, 1, 5]>, fillcolor="#d5bdf6"] ;
167 -> 168 ;
169 [label=<entropy = 0.0<br/>samples = 3<br/>value = [3, 0, 0]>, fillcolor="#e58139"] ;
168 -> 169 ;
170 [label=<Freq &le; 2550.0<br/>entropy = 0.65<br/>samples = 6<br/>value = [0, 1, 5]>, fillcolor="#9a61ea"] ;
168 -> 170 ;
171 [label=<No &le; 1310.5<br/>entropy = 1.0<br/>samples = 2<br/>value = [0, 1, 1]>, fillcolor="#ffffff"] ;
170 -> 171 ;
172 [label=<entropy = 0.0<br/>samples = 1<br/>value = [0, 1, 0]>, fillcolor="#39e581"] ;
171 -> 172 ;
173 [label=<entropy = 0.0<br/>samples = 1<br/>value = [0, 0, 1]>, fillcolor="#8139e5"] ;
171 -> 173 ;
174 [label=<entropy = 0.0<br/>samples = 4<br/>value = [0, 0, 4]>, fillcolor="#8139e5"] ;
170 -> 174 ;
175 [label=<No &le; 766.0<br/>entropy = 0.918<br/>samples = 21<br/>value = [14, 0, 7]>, fillcolor="#f2c09c"] ;
167 -> 175 ;
176 [label=<entropy = 0.0<br/>samples = 2<br/>value = [0, 0, 2]>, fillcolor="#8139e5"] ;
175 -> 176 ;
177 [label=<No &le; 1675.0<br/>entropy = 0.831<br/>samples = 19<br/>value = [14, 0, 5]>, fillcolor="#eeae80"] ;
175 -> 177 ;
178 [label=<Freq &le; 2950.0<br/>entropy = 0.764<br/>samples = 18<br/>value = [14, 0, 4]>, fillcolor="#eca572"] ;
177 -> 178 ;
179 [label=<No &le; 1546.0<br/>entropy = 0.89<br/>samples = 13<br/>value = [9, 0, 4]>, fillcolor="#f1b991"] ;
178 -> 179 ;
180 [label=<TDP &le; 102.5<br/>entropy = 0.971<br/>samples = 10<br/>value = [6, 0, 4]>, fillcolor="#f6d5bd"] ;
179 -> 180 ;
181 [label=<No &le; 1492.5<br/>entropy = 0.811<br/>samples = 8<br/>value = [6, 0, 2]>, fillcolor="#eeab7b"] ;
180 -> 181 ;
182 [label=<No &le; 1076.5<br/>entropy = 0.592<br/>samples = 7<br/>value = [6, 0, 1]>, fillcolor="#e9965a"] ;
181 -> 182 ;
183 [label=<entropy = 0.0<br/>samples = 3<br/>value = [3, 0, 0]>, fillcolor="#e58139"] ;
182 -> 183 ;
184 [label=<No &le; 1107.5<br/>entropy = 0.811<br/>samples = 4<br/>value = [3, 0, 1]>, fillcolor="#eeab7b"] ;
182 -> 184 ;
185 [label=<entropy = 0.0<br/>samples = 1<br/>value = [0, 0, 1]>, fillcolor="#8139e5"] ;
184 -> 185 ;
186 [label=<entropy = 0.0<br/>samples = 3<br/>value = [3, 0, 0]>, fillcolor="#e58139"] ;
184 -> 186 ;
187 [label=<entropy = 0.0<br/>samples = 1<br/>value = [0, 0, 1]>, fillcolor="#8139e5"] ;
181 -> 187 ;
188 [label=<entropy = 0.0<br/>samples = 2<br/>value = [0, 0, 2]>, fillcolor="#8139e5"] ;
180 -> 188 ;
189 [label=<entropy = 0.0<br/>samples = 3<br/>value = [3, 0, 0]>, fillcolor="#e58139"] ;
179 -> 189 ;
190 [label=<entropy = 0.0<br/>samples = 5<br/>value = [5, 0, 0]>, fillcolor="#e58139"] ;
178 -> 190 ;
191 [label=<entropy = 0.0<br/>samples = 1<br/>value = [0, 0, 1]>, fillcolor="#8139e5"] ;
177 -> 191 ;
192 [label=<entropy = 0.0<br/>samples = 6<br/>value = [6, 0, 0]>, fillcolor="#e58139"] ;
166 -> 192 ;
193 [label=<entropy = 0.0<br/>samples = 8<br/>value = [8, 0, 0]>, fillcolor="#e58139"] ;
165 -> 193 ;
194 [label=<Freq &le; 2850.0<br/>entropy = 0.258<br/>samples = 23<br/>value = [22, 0, 1]>, fillcolor="#e68742"] ;
164 -> 194 ;
195 [label=<entropy = 0.0<br/>samples = 15<br/>value = [15, 0, 0]>, fillcolor="#e58139"] ;
194 -> 195 ;
196 [label=<Freq &le; 2950.0<br/>entropy = 0.544<br/>samples = 8<br/>value = [7, 0, 1]>, fillcolor="#e99355"] ;
194 -> 196 ;
197 [label=<TDP &le; 58.0<br/>entropy = 1.0<br/>samples = 2<br/>value = [1, 0, 1]>, fillcolor="#ffffff"] ;
196 -> 197 ;
198 [label=<entropy = 0.0<br/>samples = 1<br/>value = [0, 0, 1]>, fillcolor="#8139e5"] ;
197 -> 198 ;
199 [label=<entropy = 0.0<br/>samples = 1<br/>value = [1, 0, 0]>, fillcolor="#e58139"] ;
197 -> 199 ;
200 [label=<entropy = 0.0<br/>samples = 6<br/>value = [6, 0, 0]>, fillcolor="#e58139"] ;
196 -> 200 ;
201 [label=<TDP &le; 50.0<br/>entropy = 1.5<br/>samples = 4<br/>value = [1, 2, 1]>, fillcolor="#bdf6d5"] ;
163 -> 201 ;
202 [label=<entropy = 0.0<br/>samples = 1<br/>value = [1, 0, 0]>, fillcolor="#e58139"] ;
201 -> 202 ;
203 [label=<Freq &le; 3250.0<br/>entropy = 0.918<br/>samples = 3<br/>value = [0, 2, 1]>, fillcolor="#9cf2c0"] ;
201 -> 203 ;
204 [label=<entropy = 0.0<br/>samples = 2<br/>value = [0, 2, 0]>, fillcolor="#39e581"] ;
203 -> 204 ;
205 [label=<entropy = 0.0<br/>samples = 1<br/>value = [0, 0, 1]>, fillcolor="#8139e5"] ;
203 -> 205 ;
206 [label=<TDP &le; 54.5<br/>entropy = 1.165<br/>samples = 65<br/>value = [40, 3, 22]>, fillcolor="#f4caac"] ;
150 -> 206 ;
207 [label=<No &le; 401.0<br/>entropy = 0.684<br/>samples = 11<br/>value = [2, 0, 9]>, fillcolor="#9d65eb"] ;
206 -> 207 ;
208 [label=<entropy = 0.0<br/>samples = 1<br/>value = [1, 0, 0]>, fillcolor="#e58139"] ;
207 -> 208 ;
209 [label=<Freq &le; 3800.0<br/>entropy = 0.469<br/>samples = 10<br/>value = [1, 0, 9]>, fillcolor="#8f4fe8"] ;
207 -> 209 ;
210 [label=<entropy = 0.0<br/>samples = 6<br/>value = [0, 0, 6]>, fillcolor="#8139e5"] ;
209 -> 210 ;
211 [label=<No &le; 1886.0<br/>entropy = 0.811<br/>samples = 4<br/>value = [1, 0, 3]>, fillcolor="#ab7bee"] ;
209 -> 211 ;
212 [label=<Freq &le; 4050.0<br/>entropy = 1.0<br/>samples = 2<br/>value = [1, 0, 1]>, fillcolor="#ffffff"] ;
211 -> 212 ;
213 [label=<entropy = 0.0<br/>samples = 1<br/>value = [1, 0, 0]>, fillcolor="#e58139"] ;
212 -> 213 ;
214 [label=<entropy = 0.0<br/>samples = 1<br/>value = [0, 0, 1]>, fillcolor="#8139e5"] ;
212 -> 214 ;
215 [label=<entropy = 0.0<br/>samples = 2<br/>value = [0, 0, 2]>, fillcolor="#8139e5"] ;
211 -> 215 ;
216 [label=<No &le; 1665.5<br/>entropy = 1.083<br/>samples = 54<br/>value = [38, 3, 13]>, fillcolor="#efb286"] ;
206 -> 216 ;
217 [label=<No &le; 1189.5<br/>entropy = 1.119<br/>samples = 44<br/>value = [29, 2, 13]>, fillcolor="#f2be99"] ;
216 -> 217 ;
218 [label=<No &le; 640.0<br/>entropy = 1.054<br/>samples = 33<br/>value = [24, 2, 7]>, fillcolor="#eead7e"] ;
217 -> 218 ;
219 [label=<Freq &le; 4100.0<br/>entropy = 0.918<br/>samples = 21<br/>value = [14, 0, 7]>, fillcolor="#f2c09c"] ;
218 -> 219 ;
220 [label=<No &le; 462.0<br/>entropy = 0.831<br/>samples = 19<br/>value = [14, 0, 5]>, fillcolor="#eeae80"] ;
219 -> 220 ;
221 [label=<Freq &le; 3650.0<br/>entropy = 0.592<br/>samples = 14<br/>value = [12, 0, 2]>, fillcolor="#e9965a"] ;
220 -> 221 ;
222 [label=<No &le; 193.5<br/>entropy = 0.918<br/>samples = 6<br/>value = [4, 0, 2]>, fillcolor="#f2c09c"] ;
221 -> 222 ;
223 [label=<No &le; 99.0<br/>entropy = 0.918<br/>samples = 3<br/>value = [1, 0, 2]>, fillcolor="#c09cf2"] ;
222 -> 223 ;
224 [label=<entropy = 0.0<br/>samples = 1<br/>value = [1, 0, 0]>, fillcolor="#e58139"] ;
223 -> 224 ;
225 [label=<entropy = 0.0<br/>samples = 2<br/>value = [0, 0, 2]>, fillcolor="#8139e5"] ;
223 -> 225 ;
226 [label=<entropy = 0.0<br/>samples = 3<br/>value = [3, 0, 0]>, fillcolor="#e58139"] ;
222 -> 226 ;
227 [label=<entropy = 0.0<br/>samples = 8<br/>value = [8, 0, 0]>, fillcolor="#e58139"] ;
221 -> 227 ;
228 [label=<TDP &le; 78.0<br/>entropy = 0.971<br/>samples = 5<br/>value = [2, 0, 3]>, fillcolor="#d5bdf6"] ;
220 -> 228 ;
229 [label=<entropy = 0.0<br/>samples = 2<br/>value = [2, 0, 0]>, fillcolor="#e58139"] ;
228 -> 229 ;
230 [label=<entropy = 0.0<br/>samples = 3<br/>value = [0, 0, 3]>, fillcolor="#8139e5"] ;
228 -> 230 ;
231 [label=<entropy = 0.0<br/>samples = 2<br/>value = [0, 0, 2]>, fillcolor="#8139e5"] ;
219 -> 231 ;
232 [label=<TDP &le; 93.0<br/>entropy = 0.65<br/>samples = 12<br/>value = [10, 2, 0]>, fillcolor="#ea9a61"] ;
218 -> 232 ;
233 [label=<entropy = 0.0<br/>samples = 9<br/>value = [9, 0, 0]>, fillcolor="#e58139"] ;
232 -> 233 ;
234 [label=<DieSize &le; 90.0<br/>entropy = 0.918<br/>samples = 3<br/>value = [1, 2, 0]>, fillcolor="#9cf2c0"] ;
232 -> 234 ;
235 [label=<entropy = 0.0<br/>samples = 2<br/>value = [0, 2, 0]>, fillcolor="#39e581"] ;
234 -> 235 ;
236 [label=<entropy = 0.0<br/>samples = 1<br/>value = [1, 0, 0]>, fillcolor="#e58139"] ;
234 -> 236 ;
237 [label=<TDP &le; 118.5<br/>entropy = 0.994<br/>samples = 11<br/>value = [5, 0, 6]>, fillcolor="#eadefb"] ;
217 -> 237 ;
238 [label=<TDP &le; 61.5<br/>entropy = 0.863<br/>samples = 7<br/>value = [2, 0, 5]>, fillcolor="#b388ef"] ;
237 -> 238 ;
239 [label=<entropy = 0.0<br/>samples = 1<br/>value = [1, 0, 0]>, fillcolor="#e58139"] ;
238 -> 239 ;
240 [label=<No &le; 1579.5<br/>entropy = 0.65<br/>samples = 6<br/>value = [1, 0, 5]>, fillcolor="#9a61ea"] ;
238 -> 240 ;
241 [label=<entropy = 0.0<br/>samples = 4<br/>value = [0, 0, 4]>, fillcolor="#8139e5"] ;
240 -> 241 ;
242 [label=<Freq &le; 3550.0<br/>entropy = 1.0<br/>samples = 2<br/>value = [1, 0, 1]>, fillcolor="#ffffff"] ;
240 -> 242 ;
243 [label=<entropy = 0.0<br/>samples = 1<br/>value = [0, 0, 1]>, fillcolor="#8139e5"] ;
242 -> 243 ;
244 [label=<entropy = 0.0<br/>samples = 1<br/>value = [1, 0, 0]>, fillcolor="#e58139"] ;
242 -> 244 ;
245 [label=<No &le; 1419.0<br/>entropy = 0.811<br/>samples = 4<br/>value = [3, 0, 1]>, fillcolor="#eeab7b"] ;
237 -> 245 ;
246 [label=<entropy = 0.0<br/>samples = 3<br/>value = [3, 0, 0]>, fillcolor="#e58139"] ;
245 -> 246 ;
247 [label=<entropy = 0.0<br/>samples = 1<br/>value = [0, 0, 1]>, fillcolor="#8139e5"] ;
245 -> 247 ;
248 [label=<TDP &le; 272.5<br/>entropy = 0.469<br/>samples = 10<br/>value = [9, 1, 0]>, fillcolor="#e88f4f"] ;
216 -> 248 ;
249 [label=<entropy = 0.0<br/>samples = 9<br/>value = [9, 0, 0]>, fillcolor="#e58139"] ;
248 -> 249 ;
250 [label=<entropy = 0.0<br/>samples = 1<br/>value = [0, 1, 0]>, fillcolor="#39e581"] ;
248 -> 250 ;
251 [label=<Transsistors &le; 1600.0<br/>entropy = 1.525<br/>samples = 201<br/>value = [66, 44, 91]>, fillcolor="#e8dafa"] ;
121 -> 251 ;
252 [label=<Freq &le; 4000.0<br/>entropy = 0.439<br/>samples = 11<br/>value = [0, 10, 1]>, fillcolor="#4de88e"] ;
251 -> 252 ;
253 [label=<entropy = 0.0<br/>samples = 10<br/>value = [0, 10, 0]>, fillcolor="#39e581"] ;
252 -> 253 ;
254 [label=<entropy = 0.0<br/>samples = 1<br/>value = [0, 0, 1]>, fillcolor="#8139e5"] ;
252 -> 254 ;
255 [label=<TDP &le; 77.5<br/>entropy = 1.485<br/>samples = 190<br/>value = [66, 34, 90]>, fillcolor="#e7d9fa"] ;
251 -> 255 ;
256 [label=<DieSize &le; 204.0<br/>entropy = 1.27<br/>samples = 82<br/>value = [39, 5, 38]>, fillcolor="#fefcfb"] ;
255 -> 256 ;
257 [label=<TDP &le; 22.5<br/>entropy = 1.285<br/>samples = 68<br/>value = [26, 5, 37]>, fillcolor="#decbf8"] ;
256 -> 257 ;
258 [label=<entropy = 0.0<br/>samples = 5<br/>value = [5, 0, 0]>, fillcolor="#e58139"] ;
257 -> 258 ;
259 [label=<No &le; 2650.5<br/>entropy = 1.269<br/>samples = 63<br/>value = [21, 5, 37]>, fillcolor="#cfb4f5"] ;
257 -> 259 ;
260 [label=<Freq &le; 1322.5<br/>entropy = 0.953<br/>samples = 19<br/>value = [2, 2, 15]>, fillcolor="#9f68eb"] ;
259 -> 260 ;
261 [label=<TDP &le; 45.0<br/>entropy = 0.918<br/>samples = 6<br/>value = [0, 2, 4]>, fillcolor="#c09cf2"] ;
260 -> 261 ;
262 [label=<entropy = 0.0<br/>samples = 3<br/>value = [0, 0, 3]>, fillcolor="#8139e5"] ;
261 -> 262 ;
263 [label=<No &le; 2456.5<br/>entropy = 0.918<br/>samples = 3<br/>value = [0, 2, 1]>, fillcolor="#9cf2c0"] ;
261 -> 263 ;
264 [label=<entropy = 0.0<br/>samples = 1<br/>value = [0, 1, 0]>, fillcolor="#39e581"] ;
263 -> 264 ;
265 [label=<No &le; 2557.0<br/>entropy = 1.0<br/>samples = 2<br/>value = [0, 1, 1]>, fillcolor="#ffffff"] ;
263 -> 265 ;
266 [label=<entropy = 0.0<br/>samples = 1<br/>value = [0, 0, 1]>, fillcolor="#8139e5"] ;
265 -> 266 ;
267 [label=<entropy = 0.0<br/>samples = 1<br/>value = [0, 1, 0]>, fillcolor="#39e581"] ;
265 -> 267 ;
268 [label=<TDP &le; 50.0<br/>entropy = 0.619<br/>samples = 13<br/>value = [2, 0, 11]>, fillcolor="#985dea"] ;
260 -> 268 ;
269 [label=<Transsistors &le; 3300.0<br/>entropy = 0.918<br/>samples = 3<br/>value = [2, 0, 1]>, fillcolor="#f2c09c"] ;
268 -> 269 ;
270 [label=<entropy = 0.0<br/>samples = 1<br/>value = [0, 0, 1]>, fillcolor="#8139e5"] ;
269 -> 270 ;
271 [label=<entropy = 0.0<br/>samples = 2<br/>value = [2, 0, 0]>, fillcolor="#e58139"] ;
269 -> 271 ;
272 [label=<entropy = 0.0<br/>samples = 10<br/>value = [0, 0, 10]>, fillcolor="#8139e5"] ;
268 -> 272 ;
273 [label=<Freq &le; 1124.5<br/>entropy = 1.287<br/>samples = 44<br/>value = [19, 3, 22]>, fillcolor="#f0e7fc"] ;
259 -> 273 ;
274 [label=<Freq &le; 1112.0<br/>entropy = 0.951<br/>samples = 27<br/>value = [10, 0, 17]>, fillcolor="#cbadf4"] ;
273 -> 274 ;
275 [label=<DieSize &le; 113.0<br/>entropy = 0.98<br/>samples = 24<br/>value = [10, 0, 14]>, fillcolor="#dbc6f8"] ;
274 -> 275 ;
276 [label=<Freq &le; 952.5<br/>entropy = 0.98<br/>samples = 12<br/>value = [7, 0, 5]>, fillcolor="#f8dbc6"] ;
275 -> 276 ;
277 [label=<entropy = 0.0<br/>samples = 2<br/>value = [0, 0, 2]>, fillcolor="#8139e5"] ;
276 -> 277 ;
278 [label=<Freq &le; 1091.0<br/>entropy = 0.881<br/>samples = 10<br/>value = [7, 0, 3]>, fillcolor="#f0b78e"] ;
276 -> 278 ;
279 [label=<entropy = 0.0<br/>samples = 5<br/>value = [5, 0, 0]>, fillcolor="#e58139"] ;
278 -> 279 ;
280 [label=<No &le; 4757.5<br/>entropy = 0.971<br/>samples = 5<br/>value = [2, 0, 3]>, fillcolor="#d5bdf6"] ;
278 -> 280 ;
281 [label=<No &le; 3818.0<br/>entropy = 0.811<br/>samples = 4<br/>value = [1, 0, 3]>, fillcolor="#ab7bee"] ;
280 -> 281 ;
282 [label=<No &le; 3250.5<br/>entropy = 1.0<br/>samples = 2<br/>value = [1, 0, 1]>, fillcolor="#ffffff"] ;
281 -> 282 ;
283 [label=<entropy = 0.0<br/>samples = 1<br/>value = [0, 0, 1]>, fillcolor="#8139e5"] ;
282 -> 283 ;
284 [label=<entropy = 0.0<br/>samples = 1<br/>value = [1, 0, 0]>, fillcolor="#e58139"] ;
282 -> 284 ;
285 [label=<entropy = 0.0<br/>samples = 2<br/>value = [0, 0, 2]>, fillcolor="#8139e5"] ;
281 -> 285 ;
286 [label=<entropy = 0.0<br/>samples = 1<br/>value = [1, 0, 0]>, fillcolor="#e58139"] ;
280 -> 286 ;
287 [label=<Freq &le; 1001.0<br/>entropy = 0.811<br/>samples = 12<br/>value = [3, 0, 9]>, fillcolor="#ab7bee"] ;
275 -> 287 ;
288 [label=<entropy = 0.0<br/>samples = 2<br/>value = [2, 0, 0]>, fillcolor="#e58139"] ;
287 -> 288 ;
289 [label=<No &le; 4514.5<br/>entropy = 0.469<br/>samples = 10<br/>value = [1, 0, 9]>, fillcolor="#8f4fe8"] ;
287 -> 289 ;
290 [label=<entropy = 0.0<br/>samples = 9<br/>value = [0, 0, 9]>, fillcolor="#8139e5"] ;
289 -> 290 ;
291 [label=<entropy = 0.0<br/>samples = 1<br/>value = [1, 0, 0]>, fillcolor="#e58139"] ;
289 -> 291 ;
292 [label=<entropy = 0.0<br/>samples = 3<br/>value = [0, 0, 3]>, fillcolor="#8139e5"] ;
274 -> 292 ;
293 [label=<Freq &le; 1138.5<br/>entropy = 1.447<br/>samples = 17<br/>value = [9, 3, 5]>, fillcolor="#f6d5bd"] ;
273 -> 293 ;
294 [label=<entropy = 0.0<br/>samples = 2<br/>value = [0, 2, 0]>, fillcolor="#39e581"] ;
293 -> 294 ;
295 [label=<Freq &le; 1299.0<br/>entropy = 1.231<br/>samples = 15<br/>value = [9, 1, 5]>, fillcolor="#f5cdb0"] ;
293 -> 295 ;
296 [label=<No &le; 3583.0<br/>entropy = 0.503<br/>samples = 9<br/>value = [8, 0, 1]>, fillcolor="#e89152"] ;
295 -> 296 ;
297 [label=<Transsistors &le; 3850.0<br/>entropy = 1.0<br/>samples = 2<br/>value = [1, 0, 1]>, fillcolor="#ffffff"] ;
296 -> 297 ;
298 [label=<entropy = 0.0<br/>samples = 1<br/>value = [0, 0, 1]>, fillcolor="#8139e5"] ;
297 -> 298 ;
299 [label=<entropy = 0.0<br/>samples = 1<br/>value = [1, 0, 0]>, fillcolor="#e58139"] ;
297 -> 299 ;
300 [label=<entropy = 0.0<br/>samples = 7<br/>value = [7, 0, 0]>, fillcolor="#e58139"] ;
296 -> 300 ;
301 [label=<No &le; 2931.5<br/>entropy = 1.252<br/>samples = 6<br/>value = [1, 1, 4]>, fillcolor="#b388ef"] ;
295 -> 301 ;
302 [label=<entropy = 0.0<br/>samples = 1<br/>value = [1, 0, 0]>, fillcolor="#e58139"] ;
301 -> 302 ;
303 [label=<TDP &le; 62.5<br/>entropy = 0.722<br/>samples = 5<br/>value = [0, 1, 4]>, fillcolor="#a06aec"] ;
301 -> 303 ;
304 [label=<entropy = 0.0<br/>samples = 2<br/>value = [0, 0, 2]>, fillcolor="#8139e5"] ;
303 -> 304 ;
305 [label=<No &le; 3867.5<br/>entropy = 0.918<br/>samples = 3<br/>value = [0, 1, 2]>, fillcolor="#c09cf2"] ;
303 -> 305 ;
306 [label=<entropy = 0.0<br/>samples = 1<br/>value = [0, 0, 1]>, fillcolor="#8139e5"] ;
305 -> 306 ;
307 [label=<No &le; 4253.0<br/>entropy = 1.0<br/>samples = 2<br/>value = [0, 1, 1]>, fillcolor="#ffffff"] ;
305 -> 307 ;
308 [label=<entropy = 0.0<br/>samples = 1<br/>value = [0, 1, 0]>, fillcolor="#39e581"] ;
307 -> 308 ;
309 [label=<entropy = 0.0<br/>samples = 1<br/>value = [0, 0, 1]>, fillcolor="#8139e5"] ;
307 -> 309 ;
310 [label=<No &le; 4141.5<br/>entropy = 0.371<br/>samples = 14<br/>value = [13, 0, 1]>, fillcolor="#e78b48"] ;
256 -> 310 ;
311 [label=<entropy = 0.0<br/>samples = 13<br/>value = [13, 0, 0]>, fillcolor="#e58139"] ;
310 -> 311 ;
312 [label=<entropy = 0.0<br/>samples = 1<br/>value = [0, 0, 1]>, fillcolor="#8139e5"] ;
310 -> 312 ;
313 [label=<Freq &le; 1803.5<br/>entropy = 1.517<br/>samples = 108<br/>value = [27, 29, 52]>, fillcolor="#dac5f7"] ;
255 -> 313 ;
314 [label=<DieSize &le; 552.5<br/>entropy = 1.542<br/>samples = 72<br/>value = [16, 28, 28]>, fillcolor="#ffffff"] ;
313 -> 314 ;
315 [label=<TDP &le; 277.5<br/>entropy = 1.549<br/>samples = 68<br/>value = [16, 24, 28]>, fillcolor="#f4edfd"] ;
314 -> 315 ;
316 [label=<DieSize &le; 100.0<br/>entropy = 1.565<br/>samples = 62<br/>value = [16, 24, 22]>, fillcolor="#f5fef9"] ;
315 -> 316 ;
317 [label=<No &le; 437.0<br/>entropy = 0.764<br/>samples = 9<br/>value = [0, 7, 2]>, fillcolor="#72eca5"] ;
316 -> 317 ;
318 [label=<entropy = 0.0<br/>samples = 2<br/>value = [0, 0, 2]>, fillcolor="#8139e5"] ;
317 -> 318 ;
319 [label=<entropy = 0.0<br/>samples = 7<br/>value = [0, 7, 0]>, fillcolor="#39e581"] ;
317 -> 319 ;
320 [label=<No &le; 2261.0<br/>entropy = 1.578<br/>samples = 53<br/>value = [16, 17, 20]>, fillcolor="#f4eefd"] ;
316 -> 320 ;
321 [label=<entropy = 0.0<br/>samples = 2<br/>value = [2, 0, 0]>, fillcolor="#e58139"] ;
320 -> 321 ;
322 [label=<Freq &le; 963.0<br/>entropy = 1.57<br/>samples = 51<br/>value = [14, 17, 20]>, fillcolor="#f4eefd"] ;
320 -> 322 ;
323 [label=<TDP &le; 102.5<br/>entropy = 0.811<br/>samples = 4<br/>value = [0, 3, 1]>, fillcolor="#7beeab"] ;
322 -> 323 ;
324 [label=<No &le; 3282.5<br/>entropy = 1.0<br/>samples = 2<br/>value = [0, 1, 1]>, fillcolor="#ffffff"] ;
323 -> 324 ;
325 [label=<entropy = 0.0<br/>samples = 1<br/>value = [0, 1, 0]>, fillcolor="#39e581"] ;
324 -> 325 ;
326 [label=<entropy = 0.0<br/>samples = 1<br/>value = [0, 0, 1]>, fillcolor="#8139e5"] ;
324 -> 326 ;
327 [label=<entropy = 0.0<br/>samples = 2<br/>value = [0, 2, 0]>, fillcolor="#39e581"] ;
323 -> 327 ;
328 [label=<No &le; 4655.0<br/>entropy = 1.569<br/>samples = 47<br/>value = [14, 14, 19]>, fillcolor="#ece1fb"] ;
322 -> 328 ;
329 [label=<Transsistors &le; 12150.0<br/>entropy = 1.582<br/>samples = 44<br/>value = [14, 14, 16]>, fillcolor="#f7f2fd"] ;
328 -> 329 ;
330 [label=<No &le; 3897.0<br/>entropy = 1.581<br/>samples = 37<br/>value = [13, 13, 11]>, fillcolor="#ffffff"] ;
329 -> 330 ;
331 [label=<No &le; 3724.0<br/>entropy = 1.583<br/>samples = 31<br/>value = [10, 10, 11]>, fillcolor="#f9f6fe"] ;
330 -> 331 ;
332 [label=<No &le; 2992.5<br/>entropy = 1.577<br/>samples = 28<br/>value = [10, 10, 8]>, fillcolor="#ffffff"] ;
331 -> 332 ;
333 [label=<TDP &le; 135.0<br/>entropy = 1.46<br/>samples = 13<br/>value = [2, 6, 5]>, fillcolor="#e6fcef"] ;
332 -> 333 ;
334 [label=<Transsistors &le; 6450.0<br/>entropy = 1.459<br/>samples = 6<br/>value = [2, 3, 1]>, fillcolor="#cef8e0"] ;
333 -> 334 ;
335 [label=<No &le; 2506.5<br/>entropy = 0.811<br/>samples = 4<br/>value = [0, 3, 1]>, fillcolor="#7beeab"] ;
334 -> 335 ;
336 [label=<entropy = 0.0<br/>samples = 1<br/>value = [0, 0, 1]>, fillcolor="#8139e5"] ;
335 -> 336 ;
337 [label=<entropy = 0.0<br/>samples = 3<br/>value = [0, 3, 0]>, fillcolor="#39e581"] ;
335 -> 337 ;
338 [label=<entropy = 0.0<br/>samples = 2<br/>value = [2, 0, 0]>, fillcolor="#e58139"] ;
334 -> 338 ;
339 [label=<Transsistors &le; 9500.0<br/>entropy = 0.985<br/>samples = 7<br/>value = [0, 3, 4]>, fillcolor="#e0cef8"] ;
333 -> 339 ;
340 [label=<No &le; 2296.0<br/>entropy = 0.918<br/>samples = 6<br/>value = [0, 2, 4]>, fillcolor="#c09cf2"] ;
339 -> 340 ;
341 [label=<entropy = 0.0<br/>samples = 1<br/>value = [0, 1, 0]>, fillcolor="#39e581"] ;
340 -> 341 ;
342 [label=<Freq &le; 1448.5<br/>entropy = 0.722<br/>samples = 5<br/>value = [0, 1, 4]>, fillcolor="#a06aec"] ;
340 -> 342 ;
343 [label=<entropy = 0.0<br/>samples = 3<br/>value = [0, 0, 3]>, fillcolor="#8139e5"] ;
342 -> 343 ;
344 [label=<No &le; 2790.5<br/>entropy = 1.0<br/>samples = 2<br/>value = [0, 1, 1]>, fillcolor="#ffffff"] ;
342 -> 344 ;
345 [label=<entropy = 0.0<br/>samples = 1<br/>value = [0, 0, 1]>, fillcolor="#8139e5"] ;
344 -> 345 ;
346 [label=<entropy = 0.0<br/>samples = 1<br/>value = [0, 1, 0]>, fillcolor="#39e581"] ;
344 -> 346 ;
347 [label=<entropy = 0.0<br/>samples = 1<br/>value = [0, 1, 0]>, fillcolor="#39e581"] ;
339 -> 347 ;
348 [label=<No &le; 3192.5<br/>entropy = 1.457<br/>samples = 15<br/>value = [8, 4, 3]>, fillcolor="#f6d1b7"] ;
332 -> 348 ;
349 [label=<entropy = 0.0<br/>samples = 5<br/>value = [5, 0, 0]>, fillcolor="#e58139"] ;
348 -> 349 ;
350 [label=<DieSize &le; 220.0<br/>entropy = 1.571<br/>samples = 10<br/>value = [3, 4, 3]>, fillcolor="#e3fbed"] ;
348 -> 350 ;
351 [label=<Freq &le; 1233.5<br/>entropy = 1.0<br/>samples = 4<br/>value = [2, 2, 0]>, fillcolor="#ffffff"] ;
350 -> 351 ;
352 [label=<entropy = 0.0<br/>samples = 1<br/>value = [1, 0, 0]>, fillcolor="#e58139"] ;
351 -> 352 ;
353 [label=<Freq &le; 1455.0<br/>entropy = 0.918<br/>samples = 3<br/>value = [1, 2, 0]>, fillcolor="#9cf2c0"] ;
351 -> 353 ;
354 [label=<entropy = 0.0<br/>samples = 1<br/>value = [0, 1, 0]>, fillcolor="#39e581"] ;
353 -> 354 ;
355 [label=<No &le; 3480.5<br/>entropy = 1.0<br/>samples = 2<br/>value = [1, 1, 0]>, fillcolor="#ffffff"] ;
353 -> 355 ;
356 [label=<entropy = 0.0<br/>samples = 1<br/>value = [1, 0, 0]>, fillcolor="#e58139"] ;
355 -> 356 ;
357 [label=<entropy = 0.0<br/>samples = 1<br/>value = [0, 1, 0]>, fillcolor="#39e581"] ;
355 -> 357 ;
358 [label=<TDP &le; 140.0<br/>entropy = 1.459<br/>samples = 6<br/>value = [1, 2, 3]>, fillcolor="#e0cef8"] ;
350 -> 358 ;
359 [label=<entropy = 0.0<br/>samples = 3<br/>value = [0, 0, 3]>, fillcolor="#8139e5"] ;
358 -> 359 ;
360 [label=<No &le; 3564.0<br/>entropy = 0.918<br/>samples = 3<br/>value = [1, 2, 0]>, fillcolor="#9cf2c0"] ;
358 -> 360 ;
361 [label=<entropy = 0.0<br/>samples = 2<br/>value = [0, 2, 0]>, fillcolor="#39e581"] ;
360 -> 361 ;
362 [label=<entropy = 0.0<br/>samples = 1<br/>value = [1, 0, 0]>, fillcolor="#e58139"] ;
360 -> 362 ;
363 [label=<entropy = 0.0<br/>samples = 3<br/>value = [0, 0, 3]>, fillcolor="#8139e5"] ;
331 -> 363 ;
364 [label=<Transsistors &le; 6450.0<br/>entropy = 1.0<br/>samples = 6<br/>value = [3, 3, 0]>, fillcolor="#ffffff"] ;
330 -> 364 ;
365 [label=<entropy = 0.0<br/>samples = 2<br/>value = [2, 0, 0]>, fillcolor="#e58139"] ;
364 -> 365 ;
366 [label=<No &le; 4584.0<br/>entropy = 0.811<br/>samples = 4<br/>value = [1, 3, 0]>, fillcolor="#7beeab"] ;
364 -> 366 ;
367 [label=<entropy = 0.0<br/>samples = 3<br/>value = [0, 3, 0]>, fillcolor="#39e581"] ;
366 -> 367 ;
368 [label=<entropy = 0.0<br/>samples = 1<br/>value = [1, 0, 0]>, fillcolor="#e58139"] ;
366 -> 368 ;
369 [label=<TDP &le; 192.5<br/>entropy = 1.149<br/>samples = 7<br/>value = [1, 1, 5]>, fillcolor="#ab7bee"] ;
329 -> 369 ;
370 [label=<entropy = 0.0<br/>samples = 1<br/>value = [0, 1, 0]>, fillcolor="#39e581"] ;
369 -> 370 ;
371 [label=<No &le; 3822.0<br/>entropy = 0.65<br/>samples = 6<br/>value = [1, 0, 5]>, fillcolor="#9a61ea"] ;
369 -> 371 ;
372 [label=<No &le; 3413.0<br/>entropy = 0.918<br/>samples = 3<br/>value = [1, 0, 2]>, fillcolor="#c09cf2"] ;
371 -> 372 ;
373 [label=<entropy = 0.0<br/>samples = 2<br/>value = [0, 0, 2]>, fillcolor="#8139e5"] ;
372 -> 373 ;
374 [label=<entropy = 0.0<br/>samples = 1<br/>value = [1, 0, 0]>, fillcolor="#e58139"] ;
372 -> 374 ;
375 [label=<entropy = 0.0<br/>samples = 3<br/>value = [0, 0, 3]>, fillcolor="#8139e5"] ;
371 -> 375 ;
376 [label=<entropy = 0.0<br/>samples = 3<br/>value = [0, 0, 3]>, fillcolor="#8139e5"] ;
328 -> 376 ;
377 [label=<entropy = 0.0<br/>samples = 6<br/>value = [0, 0, 6]>, fillcolor="#8139e5"] ;
315 -> 377 ;
378 [label=<entropy = 0.0<br/>samples = 4<br/>value = [0, 4, 0]>, fillcolor="#39e581"] ;
314 -> 378 ;
379 [label=<DieSize &le; 96.0<br/>entropy = 1.056<br/>samples = 36<br/>value = [11, 1, 24]>, fillcolor="#bd98f1"] ;
313 -> 379 ;
380 [label=<Transsistors &le; 5900.0<br/>entropy = 1.231<br/>samples = 15<br/>value = [9, 1, 5]>, fillcolor="#f5cdb0"] ;
379 -> 380 ;
381 [label=<entropy = 0.0<br/>samples = 1<br/>value = [0, 1, 0]>, fillcolor="#39e581"] ;
380 -> 381 ;
382 [label=<TDP &le; 95.0<br/>entropy = 0.94<br/>samples = 14<br/>value = [9, 0, 5]>, fillcolor="#f3c7a7"] ;
380 -> 382 ;
383 [label=<entropy = 0.0<br/>samples = 2<br/>value = [0, 0, 2]>, fillcolor="#8139e5"] ;
382 -> 383 ;
384 [label=<Freq &le; 2450.0<br/>entropy = 0.811<br/>samples = 12<br/>value = [9, 0, 3]>, fillcolor="#eeab7b"] ;
382 -> 384 ;
385 [label=<entropy = 0.0<br/>samples = 6<br/>value = [6, 0, 0]>, fillcolor="#e58139"] ;
384 -> 385 ;
386 [label=<Freq &le; 2550.0<br/>entropy = 1.0<br/>samples = 6<br/>value = [3, 0, 3]>, fillcolor="#ffffff"] ;
384 -> 386 ;
387 [label=<entropy = 0.0<br/>samples = 2<br/>value = [0, 0, 2]>, fillcolor="#8139e5"] ;
386 -> 387 ;
388 [label=<No &le; 1677.0<br/>entropy = 0.811<br/>samples = 4<br/>value = [3, 0, 1]>, fillcolor="#eeab7b"] ;
386 -> 388 ;
389 [label=<Freq &le; 2800.0<br/>entropy = 1.0<br/>samples = 2<br/>value = [1, 0, 1]>, fillcolor="#ffffff"] ;
388 -> 389 ;
390 [label=<entropy = 0.0<br/>samples = 1<br/>value = [1, 0, 0]>, fillcolor="#e58139"] ;
389 -> 390 ;
391 [label=<entropy = 0.0<br/>samples = 1<br/>value = [0, 0, 1]>, fillcolor="#8139e5"] ;
389 -> 391 ;
392 [label=<entropy = 0.0<br/>samples = 2<br/>value = [2, 0, 0]>, fillcolor="#e58139"] ;
388 -> 392 ;
393 [label=<No &le; 30.0<br/>entropy = 0.454<br/>samples = 21<br/>value = [2, 0, 19]>, fillcolor="#8e4ee8"] ;
379 -> 393 ;
394 [label=<entropy = 0.0<br/>samples = 1<br/>value = [1, 0, 0]>, fillcolor="#e58139"] ;
393 -> 394 ;
395 [label=<No &le; 932.5<br/>entropy = 0.286<br/>samples = 20<br/>value = [1, 0, 19]>, fillcolor="#8843e6"] ;
393 -> 395 ;
396 [label=<entropy = 0.0<br/>samples = 11<br/>value = [0, 0, 11]>, fillcolor="#8139e5"] ;
395 -> 396 ;
397 [label=<No &le; 1105.0<br/>entropy = 0.503<br/>samples = 9<br/>value = [1, 0, 8]>, fillcolor="#9152e8"] ;
395 -> 397 ;
398 [label=<entropy = 0.0<br/>samples = 1<br/>value = [1, 0, 0]>, fillcolor="#e58139"] ;
397 -> 398 ;
399 [label=<entropy = 0.0<br/>samples = 8<br/>value = [0, 0, 8]>, fillcolor="#8139e5"] ;
397 -> 399 ;
400 [label=<ProcessSize &le; 30.0<br/>entropy = 0.076<br/>samples = 2646<br/>value = [2, 2623, 21]>, fillcolor="#3be582"] ;
0 -> 400 [labeldistance=2.5, labelangle=-45, headlabel="False"] ;
401 [label=<TDP &le; 66.5<br/>entropy = 0.243<br/>samples = 627<br/>value = [2, 604, 21]>, fillcolor="#41e686"] ;
400 -> 401 ;
402 [label=<TDP &le; 49.5<br/>entropy = 0.347<br/>samples = 393<br/>value = [2, 370, 21]>, fillcolor="#45e789"] ;
401 -> 402 ;
403 [label=<Freq &le; 2950.0<br/>entropy = 0.222<br/>samples = 309<br/>value = [0, 298, 11]>, fillcolor="#40e686"] ;
402 -> 403 ;
404 [label=<No &le; 2335.5<br/>entropy = 0.176<br/>samples = 302<br/>value = [0, 294, 8]>, fillcolor="#3ee684"] ;
403 -> 404 ;
405 [label=<entropy = 0.0<br/>samples = 94<br/>value = [0, 94, 0]>, fillcolor="#39e581"] ;
404 -> 405 ;
406 [label=<No &le; 2364.5<br/>entropy = 0.235<br/>samples = 208<br/>value = [0, 200, 8]>, fillcolor="#41e686"] ;
404 -> 406 ;
407 [label=<DieSize &le; 58.0<br/>entropy = 0.971<br/>samples = 5<br/>value = [0, 3, 2]>, fillcolor="#bdf6d5"] ;
406 -> 407 ;
408 [label=<entropy = 0.0<br/>samples = 2<br/>value = [0, 0, 2]>, fillcolor="#8139e5"] ;
407 -> 408 ;
409 [label=<entropy = 0.0<br/>samples = 3<br/>value = [0, 3, 0]>, fillcolor="#39e581"] ;
407 -> 409 ;
410 [label=<Transsistors &le; 1525.0<br/>entropy = 0.192<br/>samples = 203<br/>value = [0, 197, 6]>, fillcolor="#3fe685"] ;
406 -> 410 ;
411 [label=<Freq &le; 1095.5<br/>entropy = 0.1<br/>samples = 154<br/>value = [0, 152, 2]>, fillcolor="#3ce583"] ;
410 -> 411 ;
412 [label=<DieSize &le; 124.0<br/>entropy = 0.057<br/>samples = 153<br/>value = [0, 152, 1]>, fillcolor="#3ae582"] ;
411 -> 412 ;
413 [label=<entropy = 0.0<br/>samples = 146<br/>value = [0, 146, 0]>, fillcolor="#39e581"] ;
412 -> 413 ;
414 [label=<No &le; 3577.5<br/>entropy = 0.592<br/>samples = 7<br/>value = [0, 6, 1]>, fillcolor="#5ae996"] ;
412 -> 414 ;
415 [label=<No &le; 3065.0<br/>entropy = 0.918<br/>samples = 3<br/>value = [0, 2, 1]>, fillcolor="#9cf2c0"] ;
414 -> 415 ;
416 [label=<entropy = 0.0<br/>samples = 2<br/>value = [0, 2, 0]>, fillcolor="#39e581"] ;
415 -> 416 ;
417 [label=<entropy = 0.0<br/>samples = 1<br/>value = [0, 0, 1]>, fillcolor="#8139e5"] ;
415 -> 417 ;
418 [label=<entropy = 0.0<br/>samples = 4<br/>value = [0, 4, 0]>, fillcolor="#39e581"] ;
414 -> 418 ;
419 [label=<entropy = 0.0<br/>samples = 1<br/>value = [0, 0, 1]>, fillcolor="#8139e5"] ;
411 -> 419 ;
420 [label=<Freq &le; 787.5<br/>entropy = 0.408<br/>samples = 49<br/>value = [0, 45, 4]>, fillcolor="#4be78c"] ;
410 -> 420 ;
421 [label=<DieSize &le; 196.5<br/>entropy = 0.954<br/>samples = 8<br/>value = [0, 5, 3]>, fillcolor="#b0f5cd"] ;
420 -> 421 ;
422 [label=<Freq &le; 768.0<br/>entropy = 0.811<br/>samples = 4<br/>value = [0, 1, 3]>, fillcolor="#ab7bee"] ;
421 -> 422 ;
423 [label=<entropy = 0.0<br/>samples = 2<br/>value = [0, 0, 2]>, fillcolor="#8139e5"] ;
422 -> 423 ;
424 [label=<No &le; 3008.5<br/>entropy = 1.0<br/>samples = 2<br/>value = [0, 1, 1]>, fillcolor="#ffffff"] ;
422 -> 424 ;
425 [label=<entropy = 0.0<br/>samples = 1<br/>value = [0, 0, 1]>, fillcolor="#8139e5"] ;
424 -> 425 ;
426 [label=<entropy = 0.0<br/>samples = 1<br/>value = [0, 1, 0]>, fillcolor="#39e581"] ;
424 -> 426 ;
427 [label=<entropy = 0.0<br/>samples = 4<br/>value = [0, 4, 0]>, fillcolor="#39e581"] ;
421 -> 427 ;
428 [label=<No &le; 4646.0<br/>entropy = 0.165<br/>samples = 41<br/>value = [0, 40, 1]>, fillcolor="#3ee684"] ;
420 -> 428 ;
429 [label=<entropy = 0.0<br/>samples = 39<br/>value = [0, 39, 0]>, fillcolor="#39e581"] ;
428 -> 429 ;
430 [label=<Transsistors &le; 1710.0<br/>entropy = 1.0<br/>samples = 2<br/>value = [0, 1, 1]>, fillcolor="#ffffff"] ;
428 -> 430 ;
431 [label=<entropy = 0.0<br/>samples = 1<br/>value = [0, 1, 0]>, fillcolor="#39e581"] ;
430 -> 431 ;
432 [label=<entropy = 0.0<br/>samples = 1<br/>value = [0, 0, 1]>, fillcolor="#8139e5"] ;
430 -> 432 ;
433 [label=<DieSize &le; 211.5<br/>entropy = 0.985<br/>samples = 7<br/>value = [0, 4, 3]>, fillcolor="#cef8e0"] ;
403 -> 433 ;
434 [label=<entropy = 0.0<br/>samples = 4<br/>value = [0, 4, 0]>, fillcolor="#39e581"] ;
433 -> 434 ;
435 [label=<entropy = 0.0<br/>samples = 3<br/>value = [0, 0, 3]>, fillcolor="#8139e5"] ;
433 -> 435 ;
436 [label=<DieSize &le; 245.5<br/>entropy = 0.685<br/>samples = 84<br/>value = [2, 72, 10]>, fillcolor="#59e995"] ;
402 -> 436 ;
437 [label=<TDP &le; 50.5<br/>entropy = 0.588<br/>samples = 81<br/>value = [2, 72, 7]>, fillcolor="#51e890"] ;
436 -> 437 ;
438 [label=<Freq &le; 986.5<br/>entropy = 1.091<br/>samples = 22<br/>value = [1, 15, 6]>, fillcolor="#90f0b8"] ;
437 -> 438 ;
439 [label=<DieSize &le; 124.0<br/>entropy = 0.944<br/>samples = 18<br/>value = [1, 14, 3]>, fillcolor="#6eeca3"] ;
438 -> 439 ;
440 [label=<entropy = 0.0<br/>samples = 11<br/>value = [0, 11, 0]>, fillcolor="#39e581"] ;
439 -> 440 ;
441 [label=<Transsistors &le; 1815.0<br/>entropy = 1.449<br/>samples = 7<br/>value = [1, 3, 3]>, fillcolor="#ffffff"] ;
439 -> 441 ;
442 [label=<No &le; 3759.5<br/>entropy = 0.811<br/>samples = 4<br/>value = [1, 0, 3]>, fillcolor="#ab7bee"] ;
441 -> 442 ;
443 [label=<No &le; 3416.5<br/>entropy = 1.0<br/>samples = 2<br/>value = [1, 0, 1]>, fillcolor="#ffffff"] ;
442 -> 443 ;
444 [label=<entropy = 0.0<br/>samples = 1<br/>value = [0, 0, 1]>, fillcolor="#8139e5"] ;
443 -> 444 ;
445 [label=<entropy = 0.0<br/>samples = 1<br/>value = [1, 0, 0]>, fillcolor="#e58139"] ;
443 -> 445 ;
446 [label=<entropy = 0.0<br/>samples = 2<br/>value = [0, 0, 2]>, fillcolor="#8139e5"] ;
442 -> 446 ;
447 [label=<entropy = 0.0<br/>samples = 3<br/>value = [0, 3, 0]>, fillcolor="#39e581"] ;
441 -> 447 ;
448 [label=<No &le; 3028.0<br/>entropy = 0.811<br/>samples = 4<br/>value = [0, 1, 3]>, fillcolor="#ab7bee"] ;
438 -> 448 ;
449 [label=<No &le; 2768.0<br/>entropy = 1.0<br/>samples = 2<br/>value = [0, 1, 1]>, fillcolor="#ffffff"] ;
448 -> 449 ;
450 [label=<entropy = 0.0<br/>samples = 1<br/>value = [0, 0, 1]>, fillcolor="#8139e5"] ;
449 -> 450 ;
451 [label=<entropy = 0.0<br/>samples = 1<br/>value = [0, 1, 0]>, fillcolor="#39e581"] ;
449 -> 451 ;
452 [label=<entropy = 0.0<br/>samples = 2<br/>value = [0, 0, 2]>, fillcolor="#8139e5"] ;
448 -> 452 ;
453 [label=<No &le; 4820.0<br/>entropy = 0.247<br/>samples = 59<br/>value = [1, 57, 1]>, fillcolor="#40e685"] ;
437 -> 453 ;
454 [label=<Transsistors &le; 2740.0<br/>entropy = 0.126<br/>samples = 58<br/>value = [0, 57, 1]>, fillcolor="#3ce583"] ;
453 -> 454 ;
455 [label=<entropy = 0.0<br/>samples = 57<br/>value = [0, 57, 0]>, fillcolor="#39e581"] ;
454 -> 455 ;
456 [label=<entropy = 0.0<br/>samples = 1<br/>value = [0, 0, 1]>, fillcolor="#8139e5"] ;
454 -> 456 ;
457 [label=<entropy = 0.0<br/>samples = 1<br/>value = [1, 0, 0]>, fillcolor="#e58139"] ;
453 -> 457 ;
458 [label=<entropy = 0.0<br/>samples = 3<br/>value = [0, 0, 3]>, fillcolor="#8139e5"] ;
436 -> 458 ;
459 [label=<entropy = 0.0<br/>samples = 234<br/>value = [0, 234, 0]>, fillcolor="#39e581"] ;
401 -> 459 ;
460 [label=<entropy = 0.0<br/>samples = 2019<br/>value = [0, 2019, 0]>, fillcolor="#39e581"] ;
400 -> 460 ;
}